package ui.elements;



import java.awt.*;
import java.awt.geom.*;
import static java.awt.Color.*;

/**
 * This class has been automatically generated using
 * <a href="https://flamingo.dev.java.net">Flamingo SVG transcoder</a>.
 */
public class LeftHand {

    /**
     * Paints the transcoded SVG image on the specified graphics context. You
     * can install a custom transformation on the graphics context to scale the
     * image.
     * 
     * @param g2d Graphics context.
     */
    public static void paint(Graphics2D g2d) {
        Shape shape = null;
        
        float origAlpha = 1.0f;
        Composite origComposite = ((Graphics2D)g2d).getComposite();
        if (origComposite instanceof AlphaComposite) {
            AlphaComposite origAlphaComposite = (AlphaComposite)origComposite;
            if (origAlphaComposite.getRule() == AlphaComposite.SRC_OVER) {
                origAlpha = origAlphaComposite.getAlpha();
            }
        }
        
        java.util.LinkedList<AffineTransform> transformations = new java.util.LinkedList<>();
        

        // 
        transformations.offer(g2d.getTransform());
        //g.transform(new AffineTransform(1.3333334f, 0, 0, 1.3333334f, 2.0345053E-5f, 0));
        g2d.transform(new AffineTransform(1, 0, 0, 1, 0, 0));

        // _0
        transformations.offer(g2d.getTransform());
        g2d.transform(new AffineTransform(0.1f, 0, 0, -0.1f, 0, 450));

        // _0_0

        // _0_0_0
        shape = new GeneralPath();
        ((GeneralPath) shape).moveTo(1831.0, 4380.0);
        ((GeneralPath) shape).curveTo(1785.0, 4369.0, 1750.0, 4341.0, 1726.0, 4294.0);
        ((GeneralPath) shape).curveTo(1707.0, 4258.0, 1705.0, 4240.0, 1707.0, 4055.0);
        ((GeneralPath) shape).curveTo(1708.0, 3808.0, 1743.0, 3250.0, 1770.0, 3035.0);
        ((GeneralPath) shape).curveTo(1795.0, 2836.0, 1796.0, 2733.0, 1774.0, 2702.0);
        ((GeneralPath) shape).curveTo(1762.0, 2684.0, 1755.0, 2682.0, 1744.0, 2690.0);
        ((GeneralPath) shape).curveTo(1714.0, 2716.0, 1672.0, 2855.0, 1601.0, 3170.0);
        ((GeneralPath) shape).curveTo(1574.0, 3288.0, 1542.0, 3412.0, 1530.0, 3445.0);
        ((GeneralPath) shape).curveTo(1518.0, 3478.0, 1482.0, 3606.0, 1450.0, 3730.0);
        ((GeneralPath) shape).curveTo(1381.0, 3996.0, 1359.0, 4060.0, 1319.0, 4100.0);
        ((GeneralPath) shape).curveTo(1265.0, 4154.0, 1181.0, 4130.0, 1140.0, 4050.0);
        ((GeneralPath) shape).curveTo(1074.0, 3921.0, 1097.0, 3692.0, 1229.0, 3145.0);
        ((GeneralPath) shape).curveTo(1334.0, 2716.0, 1374.0, 2447.0, 1375.0, 2190.0);
        ((GeneralPath) shape).curveTo(1375.0, 2010.0, 1374.0, 2003.0, 1348.0, 1948.0);
        ((GeneralPath) shape).curveTo(1316.0, 1880.0, 1275.0, 1853.0, 1217.0, 1864.0);
        ((GeneralPath) shape).curveTo(1171.0, 1873.0, 1132.0, 1912.0, 1084.0, 1997.0);
        ((GeneralPath) shape).curveTo(990.0, 2167.0, 895.0, 2275.0, 768.0, 2357.0);
        ((GeneralPath) shape).curveTo(547.0, 2500.0, 307.0, 2475.0, 323.0, 2312.0);
        ((GeneralPath) shape).curveTo(330.0, 2247.0, 389.0, 2170.0, 520.0, 2056.0);
        ((GeneralPath) shape).curveTo(736.0, 1867.0, 742.0, 1859.0, 897.0, 1572.0);
        ((GeneralPath) shape).curveTo(1004.0, 1372.0, 1081.0, 1269.0, 1255.0, 1094.0);
        ((GeneralPath) shape).curveTo(1316.0, 1034.0, 1412.0, 948.0, 1469.0, 904.0);
        ((GeneralPath) shape).curveTo(1527.0, 861.0, 1582.0, 813.0, 1592.0, 799.0);
        ((GeneralPath) shape).curveTo(1624.0, 756.0, 1631.0, 704.0, 1638.0, 470.0);
        ((GeneralPath) shape).lineTo(1645.0, 245.0);
        ((GeneralPath) shape).lineTo(1651.0, 390.0);
        ((GeneralPath) shape).curveTo(1659.0, 565.0, 1647.0, 757.0, 1627.0, 797.0);
        ((GeneralPath) shape).curveTo(1609.0, 830.0, 1561.0, 876.0, 1470.0, 948.0);
        ((GeneralPath) shape).curveTo(1434.0, 976.0, 1362.0, 1043.0, 1309.0, 1097.0);
        ((GeneralPath) shape).curveTo(1121.0, 1290.0, 1042.0, 1397.0, 948.0, 1585.0);
        ((GeneralPath) shape).curveTo(813.0, 1855.0, 772.0, 1911.0, 601.0, 2059.0);
        ((GeneralPath) shape).curveTo(394.0, 2238.0, 344.0, 2315.0, 401.0, 2369.0);
        ((GeneralPath) shape).curveTo(468.0, 2431.0, 645.0, 2385.0, 798.0, 2265.0);
        ((GeneralPath) shape).curveTo(836.0, 2235.0, 871.0, 2214.0, 875.0, 2218.0);
        ((GeneralPath) shape).curveTo(880.0, 2222.0, 881.0, 2220.0, 877.0, 2215.0);
        ((GeneralPath) shape).curveTo(874.0, 2209.0, 893.0, 2179.0, 919.0, 2147.0);
        ((GeneralPath) shape).curveTo(945.0, 2116.0, 988.0, 2050.0, 1015.0, 2002.0);
        ((GeneralPath) shape).curveTo(1103.0, 1843.0, 1142.0, 1810.0, 1243.0, 1810.0);
        ((GeneralPath) shape).curveTo(1409.0, 1810.0, 1470.0, 2006.0, 1425.0, 2395.0);
        ((GeneralPath) shape).curveTo(1398.0, 2629.0, 1350.0, 2891.0, 1290.0, 3140.0);
        ((GeneralPath) shape).curveTo(1222.0, 3421.0, 1186.0, 3596.0, 1169.0, 3725.0);
        ((GeneralPath) shape).curveTo(1147.0, 3899.0, 1176.0, 4051.0, 1235.0, 4066.0);
        ((GeneralPath) shape).curveTo(1291.0, 4080.0, 1323.0, 4010.0, 1394.0, 3717.0);
        ((GeneralPath) shape).curveTo(1419.0, 3617.0, 1453.0, 3495.0, 1469.0, 3446.0);
        ((GeneralPath) shape).curveTo(1486.0, 3397.0, 1518.0, 3276.0, 1540.0, 3176.0);
        ((GeneralPath) shape).curveTo(1641.0, 2727.0, 1679.0, 2630.0, 1755.0, 2630.0);
        ((GeneralPath) shape).curveTo(1790.0, 2630.0, 1822.0, 2658.0, 1839.0, 2703.0);
        ((GeneralPath) shape).curveTo(1856.0, 2746.0, 1852.0, 2832.0, 1825.0, 3053.0);
        ((GeneralPath) shape).curveTo(1798.0, 3277.0, 1760.0, 3890.0, 1760.0, 4100.0);
        ((GeneralPath) shape).curveTo(1760.0, 4209.0, 1763.0, 4242.0, 1778.0, 4270.0);
        ((GeneralPath) shape).curveTo(1810.0, 4335.0, 1882.0, 4350.0, 1924.0, 4300.0);
        ((GeneralPath) shape).curveTo(1959.0, 4258.0, 1969.0, 4217.0, 1980.0, 4065.0);
        ((GeneralPath) shape).curveTo(1986.0, 3994.0, 2004.0, 3812.0, 2020.0, 3662.0);
        ((GeneralPath) shape).curveTo(2039.0, 3492.0, 2050.0, 3336.0, 2050.0, 3247.0);
        ((GeneralPath) shape).curveTo(2050.0, 2952.0, 2076.0, 2737.0, 2118.0, 2681.0);
        ((GeneralPath) shape).curveTo(2151.0, 2637.0, 2210.0, 2640.0, 2228.0, 2687.0);
        ((GeneralPath) shape).curveTo(2249.0, 2744.0, 2252.0, 2781.0, 2255.0, 3040.0);
        ((GeneralPath) shape).curveTo(2257.0, 3186.0, 2266.0, 3388.0, 2274.0, 3489.0);
        ((GeneralPath) shape).curveTo(2283.0, 3590.0, 2294.0, 3760.0, 2299.0, 3866.0);
        ((GeneralPath) shape).curveTo(2308.0, 4077.0, 2317.0, 4111.0, 2374.0, 4139.0);
        ((GeneralPath) shape).curveTo(2399.0, 4151.0, 2405.0, 4150.0, 2429.0, 4133.0);
        ((GeneralPath) shape).curveTo(2467.0, 4105.0, 2488.0, 4055.0, 2498.0, 3965.0);
        ((GeneralPath) shape).curveTo(2504.0, 3919.0, 2506.0, 3621.0, 2503.0, 3267.0);
        ((GeneralPath) shape).curveTo(2498.0, 2620.0, 2501.0, 2571.0, 2540.0, 2535.0);
        ((GeneralPath) shape).curveTo(2579.0, 2499.0, 2634.0, 2520.0, 2667.0, 2583.0);
        ((GeneralPath) shape).curveTo(2683.0, 2616.0, 2715.0, 2758.0, 2725.0, 2845.0);
        ((GeneralPath) shape).curveTo(2729.0, 2878.0, 2749.0, 2982.0, 2770.0, 3075.0);
        ((GeneralPath) shape).curveTo(2792.0, 3169.0, 2816.0, 3300.0, 2825.0, 3366.0);
        ((GeneralPath) shape).curveTo(2844.0, 3513.0, 2853.0, 3546.0, 2882.0, 3577.0);
        ((GeneralPath) shape).curveTo(2929.0, 3628.0, 2965.0, 3593.0, 2982.0, 3480.0);
        ((GeneralPath) shape).curveTo(2995.0, 3390.0, 2982.0, 3230.0, 2935.0, 2905.0);
        ((GeneralPath) shape).curveTo(2881.0, 2542.0, 2872.0, 2453.0, 2865.0, 2230.0);
        ((GeneralPath) shape).curveTo(2849.0, 1704.0, 2793.0, 1276.0, 2703.0, 1006.0);
        ((GeneralPath) shape).curveTo(2636.0, 805.0, 2618.0, 796.0, 2280.0, 794.0);
        ((GeneralPath) shape).curveTo(2145.0, 792.0, 2008.0, 788.0, 1975.0, 783.0);
        ((GeneralPath) shape).curveTo(1936.0, 778.0, 2029.0, 775.0, 2240.0, 775.0);
        ((GeneralPath) shape).curveTo(2419.0, 775.0, 2574.0, 780.0, 2585.0, 784.0);
        ((GeneralPath) shape).curveTo(2596.0, 789.0, 2617.0, 802.0, 2633.0, 812.0);
        ((GeneralPath) shape).lineTo(2660.0, 832.0);
        ((GeneralPath) shape).lineTo(2653.0, 743.0);
        ((GeneralPath) shape).curveTo(2648.0, 695.0, 2645.0, 538.0, 2645.0, 395.0);
        ((GeneralPath) shape).curveTo(2645.0, 194.0, 2648.0, 126.0, 2659.0, 95.0);
        ((GeneralPath) shape).lineTo(2674.0, 55.0);
        ((GeneralPath) shape).lineTo(2686.0, 95.0);
        ((GeneralPath) shape).curveTo(2694.0, 122.0, 2699.0, 219.0, 2699.0, 395.0);
        ((GeneralPath) shape).curveTo(2700.0, 642.0, 2703.0, 687.0, 2740.0, 960.0);
        ((GeneralPath) shape).curveTo(2745.0, 996.0, 2760.0, 1060.0, 2774.0, 1104.0);
        ((GeneralPath) shape).curveTo(2848.0, 1336.0, 2900.0, 1726.0, 2920.0, 2210.0);
        ((GeneralPath) shape).curveTo(2930.0, 2441.0, 2938.0, 2520.0, 2983.0, 2825.0);
        ((GeneralPath) shape).curveTo(3030.0, 3148.0, 3034.0, 3190.0, 3035.0, 3365.0);
        ((GeneralPath) shape).curveTo(3035.0, 3543.0, 3034.0, 3558.0, 3013.0, 3597.0);
        ((GeneralPath) shape).curveTo(2966.0, 3685.0, 2861.0, 3674.0, 2813.0, 3577.0);
        ((GeneralPath) shape).curveTo(2797.0, 3546.0, 2783.0, 3486.0, 2770.0, 3390.0);
        ((GeneralPath) shape).curveTo(2759.0, 3312.0, 2739.0, 3198.0, 2725.0, 3137.0);
        ((GeneralPath) shape).curveTo(2695.0, 3007.0, 2677.0, 2912.0, 2656.0, 2780.0);
        ((GeneralPath) shape).curveTo(2636.0, 2660.0, 2624.0, 2617.0, 2601.0, 2588.0);
        ((GeneralPath) shape).lineTo(2582.0, 2565.0);
        ((GeneralPath) shape).lineTo(2571.0, 2594.0);
        ((GeneralPath) shape).curveTo(2563.0, 2614.0, 2560.0, 2826.0, 2560.0, 3294.0);
        ((GeneralPath) shape).curveTo(2561.0, 3876.0, 2559.0, 3975.0, 2545.0, 4035.0);
        ((GeneralPath) shape).curveTo(2518.0, 4151.0, 2474.0, 4200.0, 2395.0, 4200.0);
        ((GeneralPath) shape).curveTo(2286.0, 4200.0, 2240.0, 4101.0, 2240.0, 3866.0);
        ((GeneralPath) shape).curveTo(2240.0, 3805.0, 2232.0, 3674.0, 2224.0, 3575.0);
        ((GeneralPath) shape).curveTo(2215.0, 3476.0, 2205.0, 3251.0, 2200.0, 3075.0);
        ((GeneralPath) shape).curveTo(2192.0, 2768.0, 2187.0, 2710.0, 2170.0, 2710.0);
        ((GeneralPath) shape).curveTo(2160.0, 2710.0, 2144.0, 2757.0, 2129.0, 2830.0);
        ((GeneralPath) shape).curveTo(2123.0, 2860.0, 2115.0, 3013.0, 2110.0, 3170.0);
        ((GeneralPath) shape).curveTo(2104.0, 3367.0, 2093.0, 3541.0, 2072.0, 3735.0);
        ((GeneralPath) shape).curveTo(2055.0, 3889.0, 2037.0, 4065.0, 2031.0, 4127.0);
        ((GeneralPath) shape).curveTo(2017.0, 4283.0, 1987.0, 4345.0, 1913.0, 4376.0);
        ((GeneralPath) shape).curveTo(1877.0, 4391.0, 1879.0, 4391.0, 1831.0, 4380.0);
        ((GeneralPath) shape).closePath();

        g2d.setRenderingHint(RenderingHints.KEY_ANTIALIASING, RenderingHints.VALUE_ANTIALIAS_ON);
        g2d.setPaint(BLACK);
        g2d.fill(shape);

        // _0_0_1
        shape = new GeneralPath();
        ((GeneralPath) shape).moveTo(1500.0, 2201.0);
        ((GeneralPath) shape).curveTo(1508.0, 2196.0, 1571.0, 2180.0, 1640.0, 2165.0);
        ((GeneralPath) shape).curveTo(1891.0, 2111.0, 2099.0, 2049.0, 2409.0, 1935.0);
        ((GeneralPath) shape).curveTo(2493.0, 1904.0, 2567.0, 1881.0, 2574.0, 1883.0);
        ((GeneralPath) shape).curveTo(2592.0, 1889.0, 2455.0, 1954.0, 2316.0, 2004.0);
        ((GeneralPath) shape).curveTo(2086.0, 2088.0, 1961.0, 2125.0, 1746.0, 2176.0);
        ((GeneralPath) shape).curveTo(1639.0, 2201.0, 1474.0, 2218.0, 1500.0, 2201.0);
        ((GeneralPath) shape).closePath();

        g2d.fill(shape);

        // _0_0_2
        shape = new GeneralPath();
        ((GeneralPath) shape).moveTo(1545.0, 2076.0);
        ((GeneralPath) shape).curveTo(1741.0, 1965.0, 1780.0, 1939.0, 1862.0, 1861.0);
        ((GeneralPath) shape).curveTo(2062.0, 1672.0, 2143.0, 1469.0, 2157.0, 1125.0);
        ((GeneralPath) shape).curveTo(2163.0, 967.0, 2164.0, 965.0, 2177.0, 1015.0);
        ((GeneralPath) shape).curveTo(2197.0, 1087.0, 2188.0, 1320.0, 2161.0, 1422.0);
        ((GeneralPath) shape).curveTo(2091.0, 1690.0, 1943.0, 1887.0, 1705.0, 2029.0);
        ((GeneralPath) shape).curveTo(1643.0, 2066.0, 1528.0, 2111.0, 1496.0, 2110.0);
        ((GeneralPath) shape).curveTo(1490.0, 2110.0, 1512.0, 2094.0, 1545.0, 2076.0);
        ((GeneralPath) shape).closePath();

        g2d.fill(shape);

        g2d.setTransform(transformations.poll()); // _0_0

        g2d.setTransform(transformations.poll()); // _0

    }

    /**
     * Returns the X of the bounding box of the original SVG image.
     * 
     * @return The X of the bounding box of the original SVG image.
     */
    public static int getOrigX() {
        return 41;
    }

    /**
     * Returns the Y of the bounding box of the original SVG image.
     * 
     * @return The Y of the bounding box of the original SVG image.
     */
    public static int getOrigY() {
        return 15;
    }

    /**
     * Returns the width of the bounding box of the original SVG image.
     * 
     * @return The width of the bounding box of the original SVG image.
     */
    public static int getOrigWidth() {
        return 364;
    }

    /**
     * Returns the height of the bounding box of the original SVG image.
     * 
     * @return The height of the bounding box of the original SVG image.
     */
    public static int getOrigHeight() {
        return 579;
    }
}

